digraph Tree {
node [shape=box, style="filled, rounded", color="black", fontname="helvetica"] ;
edge [fontname="helvetica"] ;
0 [label="age <= 89.1\ngini = 0.489\nsamples = 241\nvalue = [163, 33, 45]\nclass = Biryani", fillcolor="#efb388"] ;
1 [label="age <= 87.75\ngini = 0.507\nsamples = 217\nvalue = [143, 32, 42]\nclass = Biryani", fillcolor="#f0b68d"] ;
0 -> 1 [labeldistance=2.5, labelangle=45, headlabel="True"] ;
2 [label="gender <= 0.5\ngini = 0.498\nsamples = 211\nvalue = [141, 32, 38]\nclass = Biryani", fillcolor="#f0b489"] ;
1 -> 2 ;
3 [label="age <= 45.5\ngini = 0.332\nsamples = 41\nvalue = [33, 3, 5]\nclass = Biryani", fillcolor="#eb9d65"] ;
2 -> 3 ;
4 [label="age <= 41.5\ngini = 0.56\nsamples = 5\nvalue = [3, 1, 1]\nclass = Biryani", fillcolor="#f2c09c"] ;
3 -> 4 ;
5 [label="gini = 0.0\nsamples = 2\nvalue = [2, 0, 0]\nclass = Biryani", fillcolor="#e58139"] ;
4 -> 5 ;
6 [label="age <= 44.0\ngini = 0.667\nsamples = 3\nvalue = [1, 1, 1]\nclass = Biryani", fillcolor="#ffffff"] ;
4 -> 6 ;
7 [label="gini = 0.0\nsamples = 1\nvalue = [0, 0, 1]\nclass = Samosa", fillcolor="#8139e5"] ;
6 -> 7 ;
8 [label="gini = 0.5\nsamples = 2\nvalue = [1, 1, 0]\nclass = Biryani", fillcolor="#ffffff"] ;
6 -> 8 ;
9 [label="age <= 55.5\ngini = 0.29\nsamples = 36\nvalue = [30, 2, 4]\nclass = Biryani", fillcolor="#ea995e"] ;
3 -> 9 ;
10 [label="gini = 0.0\nsamples = 12\nvalue = [12, 0, 0]\nclass = Biryani", fillcolor="#e58139"] ;
9 -> 10 ;
11 [label="age <= 58.5\ngini = 0.403\nsamples = 24\nvalue = [18, 2, 4]\nclass = Biryani", fillcolor="#eda774"] ;
9 -> 11 ;
12 [label="age <= 56.5\ngini = 0.5\nsamples = 6\nvalue = [3, 0, 3]\nclass = Biryani", fillcolor="#ffffff"] ;
11 -> 12 ;
13 [label="gini = 0.444\nsamples = 3\nvalue = [2, 0, 1]\nclass = Biryani", fillcolor="#f2c09c"] ;
12 -> 13 ;
14 [label="age <= 57.5\ngini = 0.444\nsamples = 3\nvalue = [1, 0, 2]\nclass = Samosa", fillcolor="#c09cf2"] ;
12 -> 14 ;
15 [label="gini = 0.0\nsamples = 1\nvalue = [0, 0, 1]\nclass = Samosa", fillcolor="#8139e5"] ;
14 -> 15 ;
16 [label="gini = 0.5\nsamples = 2\nvalue = [1, 0, 1]\nclass = Biryani", fillcolor="#ffffff"] ;
14 -> 16 ;
17 [label="age <= 64.65\ngini = 0.29\nsamples = 18\nvalue = [15, 2, 1]\nclass = Biryani", fillcolor="#ea995e"] ;
11 -> 17 ;
18 [label="age <= 61.0\ngini = 0.165\nsamples = 11\nvalue = [10, 1, 0]\nclass = Biryani", fillcolor="#e88e4d"] ;
17 -> 18 ;
19 [label="age <= 59.5\ngini = 0.32\nsamples = 5\nvalue = [4, 1, 0]\nclass = Biryani", fillcolor="#eca06a"] ;
18 -> 19 ;
20 [label="gini = 0.0\nsamples = 1\nvalue = [1, 0, 0]\nclass = Biryani", fillcolor="#e58139"] ;
19 -> 20 ;
21 [label="gini = 0.375\nsamples = 4\nvalue = [3, 1, 0]\nclass = Biryani", fillcolor="#eeab7b"] ;
19 -> 21 ;
22 [label="gini = 0.0\nsamples = 6\nvalue = [6, 0, 0]\nclass = Biryani", fillcolor="#e58139"] ;
18 -> 22 ;
23 [label="age <= 67.5\ngini = 0.449\nsamples = 7\nvalue = [5, 1, 1]\nclass = Biryani", fillcolor="#eeab7b"] ;
17 -> 23 ;
24 [label="gini = 0.625\nsamples = 4\nvalue = [2, 1, 1]\nclass = Biryani", fillcolor="#f6d5bd"] ;
23 -> 24 ;
25 [label="gini = 0.0\nsamples = 3\nvalue = [3, 0, 0]\nclass = Biryani", fillcolor="#e58139"] ;
23 -> 25 ;
26 [label="age <= 54.5\ngini = 0.53\nsamples = 170\nvalue = [108, 29, 33]\nclass = Biryani", fillcolor="#f1ba93"] ;
2 -> 26 ;
27 [label="age <= 53.5\ngini = 0.648\nsamples = 16\nvalue = [7, 4, 5]\nclass = Biryani", fillcolor="#fae8db"] ;
26 -> 27 ;
28 [label="age <= 49.0\ngini = 0.602\nsamples = 14\nvalue = [7, 2, 5]\nclass = Biryani", fillcolor="#f9e3d3"] ;
27 -> 28 ;
29 [label="gini = 0.0\nsamples = 1\nvalue = [1, 0, 0]\nclass = Biryani", fillcolor="#e58139"] ;
28 -> 29 ;
30 [label="age <= 51.5\ngini = 0.615\nsamples = 13\nvalue = [6, 2, 5]\nclass = Biryani", fillcolor="#fcefe6"] ;
28 -> 30 ;
31 [label="age <= 50.7\ngini = 0.594\nsamples = 8\nvalue = [3, 1, 4]\nclass = Samosa", fillcolor="#e6d7fa"] ;
30 -> 31 ;
32 [label="age <= 50.2\ngini = 0.612\nsamples = 7\nvalue = [3, 1, 3]\nclass = Biryani", fillcolor="#ffffff"] ;
31 -> 32 ;
33 [label="gini = 0.611\nsamples = 6\nvalue = [2, 1, 3]\nclass = Samosa", fillcolor="#e0cef8"] ;
32 -> 33 ;
34 [label="gini = 0.0\nsamples = 1\nvalue = [1, 0, 0]\nclass = Biryani", fillcolor="#e58139"] ;
32 -> 34 ;
35 [label="gini = 0.0\nsamples = 1\nvalue = [0, 0, 1]\nclass = Samosa", fillcolor="#8139e5"] ;
31 -> 35 ;
36 [label="age <= 52.5\ngini = 0.56\nsamples = 5\nvalue = [3, 1, 1]\nclass = Biryani", fillcolor="#f2c09c"] ;
30 -> 36 ;
37 [label="gini = 0.0\nsamples = 2\nvalue = [2, 0, 0]\nclass = Biryani", fillcolor="#e58139"] ;
36 -> 37 ;
38 [label="gini = 0.667\nsamples = 3\nvalue = [1, 1, 1]\nclass = Biryani", fillcolor="#ffffff"] ;
36 -> 38 ;
39 [label="gini = 0.0\nsamples = 2\nvalue = [0, 2, 0]\nclass = Pakora", fillcolor="#39e581"] ;
27 -> 39 ;
40 [label="age <= 58.5\ngini = 0.51\nsamples = 154\nvalue = [101, 25, 28]\nclass = Biryani", fillcolor="#f0b68c"] ;
26 -> 40 ;
41 [label="age <= 55.1\ngini = 0.314\nsamples = 11\nvalue = [9, 1, 1]\nclass = Biryani", fillcolor="#ea9a61"] ;
40 -> 41 ;
42 [label="gini = 0.56\nsamples = 5\nvalue = [3, 1, 1]\nclass = Biryani", fillcolor="#f2c09c"] ;
41 -> 42 ;
43 [label="gini = 0.0\nsamples = 6\nvalue = [6, 0, 0]\nclass = Biryani", fillcolor="#e58139"] ;
41 -> 43 ;
44 [label="age <= 64.5\ngini = 0.522\nsamples = 143\nvalue = [92, 24, 27]\nclass = Biryani", fillcolor="#f0b890"] ;
40 -> 44 ;
45 [label="age <= 63.2\ngini = 0.609\nsamples = 27\nvalue = [14, 5, 8]\nclass = Biryani", fillcolor="#f7d7c0"] ;
44 -> 45 ;
46 [label="age <= 60.75\ngini = 0.529\nsamples = 22\nvalue = [14, 4, 4]\nclass = Biryani", fillcolor="#f1b991"] ;
45 -> 46 ;
47 [label="age <= 59.5\ngini = 0.569\nsamples = 12\nvalue = [7, 3, 2]\nclass = Biryani", fillcolor="#f3c7a7"] ;
46 -> 47 ;
48 [label="gini = 0.444\nsamples = 3\nvalue = [2, 1, 0]\nclass = Biryani", fillcolor="#f2c09c"] ;
47 -> 48 ;
49 [label="gini = 0.593\nsamples = 9\nvalue = [5, 2, 2]\nclass = Biryani", fillcolor="#f4c9aa"] ;
47 -> 49 ;
50 [label="age <= 61.75\ngini = 0.46\nsamples = 10\nvalue = [7, 1, 2]\nclass = Biryani", fillcolor="#efb083"] ;
46 -> 50 ;
51 [label="gini = 0.0\nsamples = 1\nvalue = [1, 0, 0]\nclass = Biryani", fillcolor="#e58139"] ;
50 -> 51 ;
52 [label="age <= 62.5\ngini = 0.494\nsamples = 9\nvalue = [6, 1, 2]\nclass = Biryani", fillcolor="#f0b78e"] ;
50 -> 52 ;
53 [label="gini = 0.5\nsamples = 6\nvalue = [4, 1, 1]\nclass = Biryani", fillcolor="#efb388"] ;
52 -> 53 ;
54 [label="gini = 0.444\nsamples = 3\nvalue = [2, 0, 1]\nclass = Biryani", fillcolor="#f2c09c"] ;
52 -> 54 ;
55 [label="age <= 63.7\ngini = 0.32\nsamples = 5\nvalue = [0, 1, 4]\nclass = Samosa", fillcolor="#a06aec"] ;
45 -> 55 ;
56 [label="gini = 0.0\nsamples = 1\nvalue = [0, 0, 1]\nclass = Samosa", fillcolor="#8139e5"] ;
55 -> 56 ;
57 [label="gini = 0.375\nsamples = 4\nvalue = [0, 1, 3]\nclass = Samosa", fillcolor="#ab7bee"] ;
55 -> 57 ;
58 [label="age <= 70.5\ngini = 0.494\nsamples = 116\nvalue = [78, 19, 19]\nclass = Biryani", fillcolor="#efb287"] ;
44 -> 58 ;
59 [label="age <= 68.25\ngini = 0.348\nsamples = 34\nvalue = [27, 3, 4]\nclass = Biryani", fillcolor="#eb9e67"] ;
58 -> 59 ;
60 [label="age <= 67.5\ngini = 0.42\nsamples = 23\nvalue = [17, 3, 3]\nclass = Biryani", fillcolor="#eda774"] ;
59 -> 60 ;
61 [label="age <= 65.5\ngini = 0.272\nsamples = 13\nvalue = [11, 1, 1]\nclass = Biryani", fillcolor="#e9965a"] ;
60 -> 61 ;
62 [label="gini = 0.449\nsamples = 7\nvalue = [5, 1, 1]\nclass = Biryani", fillcolor="#eeab7b"] ;
61 -> 62 ;
63 [label="gini = 0.0\nsamples = 6\nvalue = [6, 0, 0]\nclass = Biryani", fillcolor="#e58139"] ;
61 -> 63 ;
64 [label="gini = 0.56\nsamples = 10\nvalue = [6, 2, 2]\nclass = Biryani", fillcolor="#f2c09c"] ;
60 -> 64 ;
65 [label="age <= 69.25\ngini = 0.165\nsamples = 11\nvalue = [10, 0, 1]\nclass = Biryani", fillcolor="#e88e4d"] ;
59 -> 65 ;
66 [label="gini = 0.0\nsamples = 1\nvalue = [1, 0, 0]\nclass = Biryani", fillcolor="#e58139"] ;
65 -> 66 ;
67 [label="gini = 0.18\nsamples = 10\nvalue = [9, 0, 1]\nclass = Biryani", fillcolor="#e88f4f"] ;
65 -> 67 ;
68 [label="age <= 73.9\ngini = 0.542\nsamples = 82\nvalue = [51, 16, 15]\nclass = Biryani", fillcolor="#f1bc96"] ;
58 -> 68 ;
69 [label="age <= 72.55\ngini = 0.64\nsamples = 10\nvalue = [4, 4, 2]\nclass = Biryani", fillcolor="#ffffff"] ;
68 -> 69 ;
70 [label="age <= 71.25\ngini = 0.571\nsamples = 7\nvalue = [4, 2, 1]\nclass = Biryani", fillcolor="#f5cdb0"] ;
69 -> 70 ;
71 [label="gini = 0.667\nsamples = 3\nvalue = [1, 1, 1]\nclass = Biryani", fillcolor="#ffffff"] ;
70 -> 71 ;
72 [label="age <= 72.1\ngini = 0.375\nsamples = 4\nvalue = [3, 1, 0]\nclass = Biryani", fillcolor="#eeab7b"] ;
70 -> 72 ;
73 [label="gini = 0.0\nsamples = 2\nvalue = [2, 0, 0]\nclass = Biryani", fillcolor="#e58139"] ;
72 -> 73 ;
74 [label="age <= 72.35\ngini = 0.5\nsamples = 2\nvalue = [1, 1, 0]\nclass = Biryani", fillcolor="#ffffff"] ;
72 -> 74 ;
75 [label="gini = 0.0\nsamples = 1\nvalue = [0, 1, 0]\nclass = Pakora", fillcolor="#39e581"] ;
74 -> 75 ;
76 [label="gini = 0.0\nsamples = 1\nvalue = [1, 0, 0]\nclass = Biryani", fillcolor="#e58139"] ;
74 -> 76 ;
77 [label="age <= 72.8\ngini = 0.444\nsamples = 3\nvalue = [0, 2, 1]\nclass = Pakora", fillcolor="#9cf2c0"] ;
69 -> 77 ;
78 [label="gini = 0.0\nsamples = 1\nvalue = [0, 1, 0]\nclass = Pakora", fillcolor="#39e581"] ;
77 -> 78 ;
79 [label="age <= 73.4\ngini = 0.5\nsamples = 2\nvalue = [0, 1, 1]\nclass = Pakora", fillcolor="#ffffff"] ;
77 -> 79 ;
80 [label="gini = 0.0\nsamples = 1\nvalue = [0, 0, 1]\nclass = Samosa", fillcolor="#8139e5"] ;
79 -> 80 ;
81 [label="gini = 0.0\nsamples = 1\nvalue = [0, 1, 0]\nclass = Pakora", fillcolor="#39e581"] ;
79 -> 81 ;
82 [label="age <= 74.5\ngini = 0.514\nsamples = 72\nvalue = [47, 12, 13]\nclass = Biryani", fillcolor="#f0b68d"] ;
68 -> 82 ;
83 [label="gini = 0.0\nsamples = 6\nvalue = [6, 0, 0]\nclass = Biryani", fillcolor="#e58139"] ;
82 -> 83 ;
84 [label="age <= 86.5\ngini = 0.542\nsamples = 66\nvalue = [41, 12, 13]\nclass = Biryani", fillcolor="#f1bc96"] ;
82 -> 84 ;
85 [label="age <= 85.5\ngini = 0.552\nsamples = 64\nvalue = [39, 12, 13]\nclass = Biryani", fillcolor="#f2bf9a"] ;
84 -> 85 ;
86 [label="age <= 84.25\ngini = 0.538\nsamples = 56\nvalue = [35, 9, 12]\nclass = Biryani", fillcolor="#f1bd98"] ;
85 -> 86 ;
87 [label="age <= 82.85\ngini = 0.556\nsamples = 48\nvalue = [29, 9, 10]\nclass = Biryani", fillcolor="#f2c09c"] ;
86 -> 87 ;
88 [label="age <= 82.35\ngini = 0.566\nsamples = 44\nvalue = [26, 8, 10]\nclass = Biryani", fillcolor="#f3c4a2"] ;
87 -> 88 ;
89 [label="age <= 81.75\ngini = 0.556\nsamples = 43\nvalue = [26, 8, 9]\nclass = Biryani", fillcolor="#f2c09c"] ;
88 -> 89 ;
90 [label="age <= 79.5\ngini = 0.533\nsamples = 38\nvalue = [24, 7, 7]\nclass = Biryani", fillcolor="#f1ba92"] ;
89 -> 90 ;
91 [label="age <= 77.5\ngini = 0.582\nsamples = 28\nvalue = [16, 6, 6]\nclass = Biryani", fillcolor="#f3c6a5"] ;
90 -> 91 ;
92 [label="age <= 76.5\ngini = 0.519\nsamples = 17\nvalue = [11, 3, 3]\nclass = Biryani", fillcolor="#f0b78e"] ;
91 -> 92 ;
93 [label="age <= 75.5\ngini = 0.582\nsamples = 14\nvalue = [8, 3, 3]\nclass = Biryani", fillcolor="#f3c6a5"] ;
92 -> 93 ;
94 [label="gini = 0.625\nsamples = 8\nvalue = [4, 2, 2]\nclass = Biryani", fillcolor="#f6d5bd"] ;
93 -> 94 ;
95 [label="gini = 0.5\nsamples = 6\nvalue = [4, 1, 1]\nclass = Biryani", fillcolor="#efb388"] ;
93 -> 95 ;
96 [label="gini = 0.0\nsamples = 3\nvalue = [3, 0, 0]\nclass = Biryani", fillcolor="#e58139"] ;
92 -> 96 ;
97 [label="age <= 78.5\ngini = 0.645\nsamples = 11\nvalue = [5, 3, 3]\nclass = Biryani", fillcolor="#f8e0ce"] ;
91 -> 97 ;
98 [label="gini = 0.625\nsamples = 8\nvalue = [4, 2, 2]\nclass = Biryani", fillcolor="#f6d5bd"] ;
97 -> 98 ;
99 [label="gini = 0.667\nsamples = 3\nvalue = [1, 1, 1]\nclass = Biryani", fillcolor="#ffffff"] ;
97 -> 99 ;
100 [label="age <= 80.5\ngini = 0.34\nsamples = 10\nvalue = [8, 1, 1]\nclass = Biryani", fillcolor="#eb9d65"] ;
90 -> 100 ;
101 [label="gini = 0.406\nsamples = 8\nvalue = [6, 1, 1]\nclass = Biryani", fillcolor="#eca572"] ;
100 -> 101 ;
102 [label="gini = 0.0\nsamples = 2\nvalue = [2, 0, 0]\nclass = Biryani", fillcolor="#e58139"] ;
100 -> 102 ;
103 [label="gini = 0.64\nsamples = 5\nvalue = [2, 1, 2]\nclass = Biryani", fillcolor="#ffffff"] ;
89 -> 103 ;
104 [label="gini = 0.0\nsamples = 1\nvalue = [0, 0, 1]\nclass = Samosa", fillcolor="#8139e5"] ;
88 -> 104 ;
105 [label="age <= 83.5\ngini = 0.375\nsamples = 4\nvalue = [3, 1, 0]\nclass = Biryani", fillcolor="#eeab7b"] ;
87 -> 105 ;
106 [label="gini = 0.0\nsamples = 1\nvalue = [1, 0, 0]\nclass = Biryani", fillcolor="#e58139"] ;
105 -> 106 ;
107 [label="gini = 0.444\nsamples = 3\nvalue = [2, 1, 0]\nclass = Biryani", fillcolor="#f2c09c"] ;
105 -> 107 ;
108 [label="age <= 84.75\ngini = 0.375\nsamples = 8\nvalue = [6, 0, 2]\nclass = Biryani", fillcolor="#eeab7b"] ;
86 -> 108 ;
109 [label="gini = 0.0\nsamples = 1\nvalue = [1, 0, 0]\nclass = Biryani", fillcolor="#e58139"] ;
108 -> 109 ;
110 [label="gini = 0.408\nsamples = 7\nvalue = [5, 0, 2]\nclass = Biryani", fillcolor="#efb388"] ;
108 -> 110 ;
111 [label="gini = 0.594\nsamples = 8\nvalue = [4, 3, 1]\nclass = Biryani", fillcolor="#fae6d7"] ;
85 -> 111 ;
112 [label="gini = 0.0\nsamples = 2\nvalue = [2, 0, 0]\nclass = Biryani", fillcolor="#e58139"] ;
84 -> 112 ;
113 [label="age <= 88.1\ngini = 0.444\nsamples = 6\nvalue = [2, 0, 4]\nclass = Samosa", fillcolor="#c09cf2"] ;
1 -> 113 ;
114 [label="gini = 0.48\nsamples = 5\nvalue = [2, 0, 3]\nclass = Samosa", fillcolor="#d5bdf6"] ;
113 -> 114 ;
115 [label="gini = 0.0\nsamples = 1\nvalue = [0, 0, 1]\nclass = Samosa", fillcolor="#8139e5"] ;
113 -> 115 ;
116 [label="gender <= 0.5\ngini = 0.288\nsamples = 24\nvalue = [20, 1, 3]\nclass = Biryani", fillcolor="#ea995f"] ;
0 -> 116 [labeldistance=2.5, labelangle=-45, headlabel="False"] ;
117 [label="gini = 0.0\nsamples = 1\nvalue = [0, 0, 1]\nclass = Samosa", fillcolor="#8139e5"] ;
116 -> 117 ;
118 [label="age <= 119.5\ngini = 0.234\nsamples = 23\nvalue = [20, 1, 2]\nclass = Biryani", fillcolor="#e99355"] ;
116 -> 118 ;
119 [label="age <= 96.5\ngini = 0.1\nsamples = 19\nvalue = [18, 1, 0]\nclass = Biryani", fillcolor="#e68844"] ;
118 -> 119 ;
120 [label="gini = 0.0\nsamples = 10\nvalue = [10, 0, 0]\nclass = Biryani", fillcolor="#e58139"] ;
119 -> 120 ;
121 [label="age <= 97.5\ngini = 0.198\nsamples = 9\nvalue = [8, 1, 0]\nclass = Biryani", fillcolor="#e89152"] ;
119 -> 121 ;
122 [label="gini = 0.0\nsamples = 1\nvalue = [0, 1, 0]\nclass = Pakora", fillcolor="#39e581"] ;
121 -> 122 ;
123 [label="gini = 0.0\nsamples = 8\nvalue = [8, 0, 0]\nclass = Biryani", fillcolor="#e58139"] ;
121 -> 123 ;
124 [label="age <= 132.5\ngini = 0.5\nsamples = 4\nvalue = [2, 0, 2]\nclass = Biryani", fillcolor="#ffffff"] ;
118 -> 124 ;
125 [label="gini = 0.0\nsamples = 1\nvalue = [0, 0, 1]\nclass = Samosa", fillcolor="#8139e5"] ;
124 -> 125 ;
126 [label="age <= 148.0\ngini = 0.444\nsamples = 3\nvalue = [2, 0, 1]\nclass = Biryani", fillcolor="#f2c09c"] ;
124 -> 126 ;
127 [label="gini = 0.0\nsamples = 1\nvalue = [1, 0, 0]\nclass = Biryani", fillcolor="#e58139"] ;
126 -> 127 ;
128 [label="age <= 170.0\ngini = 0.5\nsamples = 2\nvalue = [1, 0, 1]\nclass = Biryani", fillcolor="#ffffff"] ;
126 -> 128 ;
129 [label="gini = 0.0\nsamples = 1\nvalue = [0, 0, 1]\nclass = Samosa", fillcolor="#8139e5"] ;
128 -> 129 ;
130 [label="gini = 0.0\nsamples = 1\nvalue = [1, 0, 0]\nclass = Biryani", fillcolor="#e58139"] ;
128 -> 130 ;
}